var bestOne = {"input_nodes":14,"hidden_nodes":32,"output_nodes":2,"weights_ih":{"rows":32,"cols":14,"data":[[-0.42126963674677476,-0.04559808273466236,-1.4729055660274555,-0.434958204835194,0.21731139794013754,-2.0553165117458274,0.08576856579575409,-0.35204975094367635,1.6173997427361755,0.3430312492957308,0.7967142316206065,-0.07490809990607789,0.41583419274030764,1.4588603562879996],[2.0329406661209433,1.497006381930463,3.157446689371056,-1.248404864634644,1.2779312880131313,-0.10609856620722191,-0.9000409716954569,-0.7682146076574392,-1.770440662584933,-0.42504393560601217,-0.43036281031297274,1.3673428701737398,-0.4422252392268202,-2.0812762071548474],[-1.619930218473981,0.8378406064671109,0.6813276409922437,1.3784442467090132,0.9230093293856019,4.551741784993589,-0.102844796069407,-1.0724484836298882,1.6712788613370373,1.518666567428548,1.288061609233009,0.12304485630032258,-1.1708643659997082,1.327451955447758],[-1.4059206646387445,0.7062861082079511,-0.12552193335674183,1.8751591992608994,-0.5822678303989052,-0.7179464433255542,-1.418904155877732,-2.6337437758928703,-0.4880454758362926,-2.2389148658856555,0.17760337449768693,-0.3156088338513232,0.2529155961572146,1.074007540739544],[-1.842299605189667,-0.3976836921573602,2.6271441149206782,2.160590939457431,-2.8466722724071407,1.1262070371861728,1.8068307410799407,-0.017939217707371946,-0.44013554188578774,3.394324795640749,0.04249121123167976,-2.375187933449451,1.3244898444438367,1.1826708086201507],[0.5226129531730644,-2.5091912182981995,0.5141935463596201,1.391645759642188,-2.727288474701105,-2.2959659729055235,1.2779542035407794,-2.634681328572161,2.01184957970851,-1.882890373230124,0.15932220930308696,1.7820946731260996,-2.1574928212136997,-3.7357587812930997],[2.6935854895071274,-0.20810537452435113,0.5376882548249557,3.023089240378893,-0.8302453058677168,0.18912040270808966,-0.6865348506324065,-0.9465284284737386,-4.462515789051134,-2.171121781671699,-0.7108161562314815,0.3011952873310588,-1.3223538163310284,0.7927479537859787],[1.7672580919812586,1.5736703777655097,-2.57930947647486,0.8343635579206081,-0.46626382843806286,-0.7331245758191157,1.5942641103943487,-1.088995514640475,2.24925102455816,-1.0979185092043584,1.4337214744492517,-0.5585914873492469,-0.27613931636831407,-1.225393352677922],[0.4305181892320861,0.44557106779606226,1.7852322872812427,0.28904665707606186,-0.672941309826472,-1.079601274931033,0.7535345052191413,-0.04549057045054927,1.1637480343450801,0.051816422391233574,-1.9337156858776126,-2.664897454265143,-0.16892933453786113,0.2801344265515561],[-0.1147477902756342,0.14934491862385266,-1.7561538795678266,-1.277287016300467,0.48454397354344503,1.432878800917563,-2.598738120499115,0.9044038123637208,1.7250932570196105,2.051845991167491,-1.235683938447625,-0.27187135645518645,-2.023777947503341,2.1414131129327796],[0.3015962930350984,-2.8152914770235427,-0.3835688786919611,-1.5833817259043554,0.4896602907495391,-2.7007426120027107,2.3240278375315695,-1.014604710259439,1.4652105278313439,-2.356244985215845,-2.417116455790316,1.9719957585325298,-2.8189314804056576,-0.3253392644512333],[-5.649538167488685,-1.125496355516304,-2.032662511206701,-0.713357465653718,-3.1915225685116466,3.066410775639293,-1.0465949218346111,-3.564686973484055,-1.9498646908452695,-5.104304687509701,-2.2051890425889367,-1.3736368181390994,-1.3409915434154702,-0.5755260422785675],[-0.39966411663469054,-0.5287267926847481,2.0667777403968173,-2.244943610676465,-0.9036399696736579,-1.6549745322966958,-2.300831937817964,-0.253569265833561,-0.7092204545347355,2.003269488977069,-2.712312079773027,-0.5007824950116432,0.6157189438991117,1.127886727678273],[3.2842190042557045,3.241112537836566,-0.09981565070450002,0.15125159986223025,-1.1426496535056603,1.2946117302679399,-3.108959696231351,-0.029397524046481827,0.8253107006998082,-1.0822043546273226,3.406524669725203,2.698615980420464,-1.7089877790082815,-1.3524501483204385],[-1.7164673225941351,-3.49938312602909,0.24815242829654624,2.3789509424377595,-0.5805467578363502,0.5873653020000924,-0.8380919416368999,-0.16068500881047978,-2.9792561439058898,0.19749418116265105,-0.978458184914144,-0.3290741187196517,3.59474564660991,1.0200253532302908],[1.6594722580671113,-1.2843265398079813,0.1430044694309258,-0.22057372276993928,2.876791925522349,1.9575920269833609,1.2969197452242731,-0.7183348768269953,3.907962822300229,0.5838976067015645,1.088074863810966,0.8989565611084405,-1.1094833645340736,2.7926597881959716],[-0.10847764289061734,-0.3964728679642009,1.534924725172999,-2.188544553247282,1.840815243347984,1.8424416947076248,1.7950055275407608,-1.1049909070834596,-1.9007958297346261,0.5265400245213616,-0.1933822685625568,-2.873770018013758,1.4999228190375256,1.2296218485454011],[6.724478461765528,-1.5241326527395271,-0.7852223876694036,-0.20503151869982644,-3.0313975271090445,2.0997641498395723,2.5581230670683053,-1.2443163803218065,-1.155622602436616,1.2297764798686237,-2.3070073631444017,1.683971022309688,-4.652906675885076,-1.6666798064212895],[-2.6507485005078832,-0.4234903468823491,2.7681682836083863,0.6425598496028405,-2.5831442748265094,0.1466131871044436,1.8010562684878928,0.35983940491949734,0.6576539968335113,0.12193853268836413,0.28213972482689853,0.5544652585616827,0.2665305236612561,1.1956502225292507],[-3.2364742328580904,0.8528626298510851,-0.4282209939747693,1.692940019764197,-0.802020202572319,1.0329987393527509,-1.1094322586668315,0.061580067232204605,0.9135809231710034,-1.6685464069036844,0.8764577649954346,-1.867171282651343,1.3271692814743767,-1.0061248967902818],[-2.208912672427018,-3.4724864003401033,-2.035424145846227,1.6771266581332436,1.567648842464848,0.4602591971587813,-0.8254332686495879,-1.1820834766773292,-0.34854533476632565,1.8890007158372994,-1.8788931565935285,1.6268592491880558,3.8909115608367446,-4.3927254588393785],[5.031292093071558,1.2096569524589809,-0.6387998694190371,0.6241368597491385,-1.4414324786587773,-1.5488775750321622,-1.8058660923833572,-0.08418587337754188,1.7263216219665383,-0.623169466315087,-0.9851478956835455,0.2313627180816793,-0.21112836915133393,1.5668210453976006],[1.6259887478812893,0.8547146617845185,0.6085521198454718,3.35274661349746,-2.091274952174813,-1.4711585274774768,4.512573085759717,-1.7991872993969789,2.5271897869849735,-3.90711042080379,-1.1281448600082526,-2.218591300543312,-0.011330344886500143,-0.08761740563488979],[-2.322666017068135,-0.32674964251691163,-2.5712485436996015,0.3219319964695221,-3.190423213619031,0.3781680503650562,0.5596392407264943,-0.39429021129447334,-2.163658065103995,0.11767631326305555,-1.6436239913572206,-2.6620668406819994,-0.5377513840248573,-2.728183216608085],[0.6402553086212781,-1.8666224812291872,0.565263130371993,0.06146775926915275,0.3954650239638985,-1.0122457233465243,1.4532323573424795,-1.0749263227367174,3.1341686943907288,-0.08602398579136222,3.3507302922156175,0.09978399440554475,0.028900250682242085,-2.865529305320254],[3.9921769756844845,1.1044869932057413,-0.6527537962722738,-4.745919200592992,0.951790171638293,1.0875212789950781,0.517099099897884,0.17941297805005285,0.16881496064759463,-0.5849734785431301,2.0117213153061195,4.433842844230643,0.4377380517716441,0.7109730902096716],[1.1740916153249323,-1.1920876947836534,1.5170452676990573,-3.138417673275947,1.7722768341241952,0.034526124314005924,0.9805768080564796,-1.16540371682703,-0.7409123884593656,0.5500124306018668,3.4030712419282834,-3.0191295976932913,-1.4156359709412987,1.045054525041931],[0.3017711900025156,-2.7074261762048435,-1.6554726269717275,-1.9943218025265033,0.6429668390072407,0.718734418397537,1.5583599102283905,1.1631566579222814,0.3830483291112398,1.544633825645628,1.33414804093553,-1.0227107825480157,-1.5278685366678852,1.7327735527439194],[0.9294701114664872,0.46004241840065563,0.7884236546380118,-5.431131289021481,0.1865514975236247,-1.1181565939845144,-1.720712307789078,-0.13672244739722672,-1.7764679210161876,1.0498085015606486,1.710051189125557,0.013835237594562122,-4.544857855122486,-0.989440475605832],[2.6552032263141543,-0.658392202044986,2.9436714447291563,1.5188482714782787,-1.268898722272731,-1.325879610613354,0.6259476647589131,-2.742930623435259,0.35938928954311333,-1.980970386018587,-0.763300652034973,1.3316173292441542,2.402105608429713,-1.5075337274233527],[2.114958838398624,0.9568119448857481,-1.5075356237576807,-0.2927766989363298,-1.2873321313732033,-0.4322090014880553,-0.33966225924058757,0.542691367765047,0.19861870769594164,3.651568498179862,-2.5511175464880123,2.323338198302596,-1.0897494522885662,-1.687022245857938],[-0.6988381166984022,-1.1000995365310473,-1.3441525258152849,-0.05999481414558461,-2.036892874035333,1.2619442532734937,4.2570953288511655,0.45416645333741523,3.292011272305903,0.775448097255752,-0.29471522235207814,1.9140844034813378,-3.8162609968176353,-1.074322586003334]]},"weights_ho":{"rows":2,"cols":32,"data":[[-1.4978956738506068,2.4726104090735648,-0.2364307800807554,-0.42158752317467657,4.022146887937152,-1.692986980394346,1.6277173953875084,0.8111460067553005,2.3173861156632394,-0.3486793453071639,0.5250121455936901,2.8055359561487845,0.658851179975509,-1.5873739714816193,-2.1368859450382134,-0.28993176356664274,0.8040438760389397,1.2038681917187468,1.0610736017083742,-1.335914414180103,-0.5513335617005849,-1.273275263279244,0.9703627467070958,2.0610318509821863,-2.660406146093565,-2.0879901708767097,-0.41527034432625165,2.150043514131388,0.5036723123142486,3.3033975712463923,0.3424142771231039,-0.8135227506354488],[-3.5764414517549667,0.37112732540684706,-0.5367707087803393,-3.0985263282311055,0.8755348187801848,2.6273132951850386,-1.3749425533616728,1.1150632968717316,1.4210710398267312,-0.7145659353513132,0.2001248898471064,-1.2310250854297338,-1.3699461304076843,-0.5273827233656734,-2.4498003075742134,0.9502790101498998,1.617474879633848,-2.730396460049503,1.2901827009808193,-2.5320952987187355,-2.0321457069432887,-0.009778529658871077,1.6839690374824743,0.9505208935748789,-0.4284815929028306,1.6666483659599736,0.4856888412452869,2.229227227617725,3.5684056180535926,-1.8804374053604898,2.5834403132067894,-2.5226467502369267]]},"bias_h":{"rows":32,"cols":1,"data":[[1.061384743261942],[-0.8311366971198443],[-2.4301225330530882],[-1.5461779559117308],[-0.8869528851039531],[0.19381082305414774],[1.027749909043037],[-2.393973627775369],[0.40528074880880494],[0.9591989770214703],[1.563527277389111],[0.35244547101455115],[-4.314610899600499],[-0.7905533678866579],[1.6162761320585959],[2.8001749815080355],[0.8808760522837468],[-2.080290246564338],[-3.9272023214123544],[0.369069012537913],[-3.9676409584022463],[0.3371652347695513],[4.063530263792282],[0.20438480371047182],[1.401742107530267],[-0.548828192755071],[1.7234558928416424],[-1.679878505186213],[0.09676015151567444],[0.23510442910327178],[0.3639948668040592],[-0.20655970363150963]]},"bias_o":{"rows":2,"cols":1,"data":[[-0.5985989946009017],[0.08116261707876898]]},"learning_rate":0.1,"activation_function":{}}
